ROWID	_MapSubType|INTEGER	_Difficulty|INTEGER	_ExDifficultyType|INTEGER	_DeadExperienceWeight|DOUBLE	_CompleteExperienceWeight|DOUBLE	_DeadDurabilityWeight|DOUBLE	_HPWeight|DOUBLE	_AttackPMinWeight|DOUBLE	_AttackPMaxWeight|DOUBLE	_AttackMMinWeight|DOUBLE	_AttackMMaxWeight|DOUBLE	_DefensePWeight|DOUBLE	_DefenseMWeight|DOUBLE	_StiffWeight|DOUBLE	_CriticalWeight|DOUBLE	_StunWeight|DOUBLE	_StiffResistanceWeight|DOUBLE	_CriticalResistanceWeight|DOUBLE	_StunResistanceWeight|DOUBLE	_SuperAmmorWeight|DOUBLE	_Element_Str_Weight|DOUBLE	_Fire_Def_Weight|DOUBLE	_Ice_Def_Weight|DOUBLE	_Light_Def_Weight|DOUBLE	_Dark_Def_Weight|DOUBLE	_MoveSpeedWeight|DOUBLE	_DownDelayWeight|DOUBLE	_DurabilityWeight|DOUBLE	_GoldDropWeight|DOUBLE	_HeroExpWeight|DOUBLE	_PenaltyOption1|INTEGER	_PenaltyOption1Param|TEXT	_PenaltyOption2|INTEGER	_PenaltyOption2Param|TEXT	_PenaltyOption3|INTEGER	_PenaltyOption3Param|TEXT	_PenaltyOption4|INTEGER	_PenaltyOption4Param|TEXT	_PenaltyOption5|INTEGER	_PenaltyOption5Param|TEXT	_PenaltyOption6|INTEGER	_PenaltyOption6Param|TEXT	_PenaltyOption7|INTEGER	_PenaltyOption7Param|TEXT	_PenaltyOption8|INTEGER	_PenaltyOption8Param|TEXT	_PenaltyOption9|INTEGER	_PenaltyOption9Param|TEXT	_PenaltyOption10|INTEGER	_PenaltyOption10Param|TEXT
1	1	0	0	0.0	0.0	1.0	1.0	1.0	1.0	1.0	1.0	1.0	1.0	1.0	1.0	1.0	1.0	1.0	1.0	1.0	1.0	1.0	1.0	1.0	1.0	1.0	1.0	1.0	0.0	0.0	-1		-1		-1		-1		-1		-1		-1		-1		-1		-1	
2	1	1	0	0.0	0.0	1.0	1.0	1.0	1.0	1.0	1.0	1.0	1.0	1.0	1.0	1.0	1.0	1.0	1.0	1.0	1.0	1.0	1.0	1.0	1.0	1.0	1.0	1.0	0.0	0.0	-1		-1		-1		-1		-1		-1		-1		-1		-1		-1	
3	1	2	0	0.0	0.0	1.0	1.0	1.0	1.0	1.0	1.0	1.0	1.0	1.0	1.0	1.0	1.0	1.0	1.0	1.0	1.0	1.0	1.0	1.0	1.0	1.0	1.0	1.0	0.0	0.0	-1		-1		-1		-1		-1		-1		-1		-1		-1		-1	
4	1	3	0	0.0	0.0	1.0	1.0	1.0	1.0	1.0	1.0	1.0	1.0	1.0	1.0	1.0	1.0	1.0	1.0	1.0	1.0	1.0	1.0	1.0	1.0	1.0	1.0	1.0	0.0	0.0	-1		-1		-1		-1		-1		-1		-1		-1		-1		-1	
5	1	4	0	0.0	1.0	1.0	0.432	0.11	0.11	0.11	0.11	1.0	1.0	1.0	1.0	1.0	1.0	1.0	1.0	1.0	1.0	1.0	1.0	1.0	1.0	1.0	1.0	1.0	0.0	2.0	-1		-1		-1		-1		-1		-1		-1		-1		-1		-1	
6	1	4	1	0.0	1.0619	1.0	0.649	0.329	0.329	0.329	0.329	1.0	1.0	1.0	1.0	1.0	1.0	1.0	1.0	1.0	1.0	1.0	1.0	1.0	1.0	1.0	1.0	1.0	0.0	2.9855	-1		-1		-1		-1		-1		-1		-1		-1		-1		-1	
7	1	4	2	0.0	1.1276317	1.0	0.865	0.548	0.548	0.548	0.548	1.0	1.0	1.0	1.0	1.0	1.0	1.0	1.0	1.0	1.0	1.0	1.0	1.0	1.0	1.0	1.0	1.0	0.0	3.3	-1		-1		-1		-1		-1		-1		-1		-1		-1		-1	
8	1	4	3	0.0	1.197432	1.0	1.081	0.766	0.766	0.766	0.766	1.0	1.0	1.0	1.0	1.0	1.0	1.0	1.0	1.0	1.0	1.0	1.0	1.0	1.0	1.0	1.0	1.0	0.0	3.615	-1		-1		-1		-1		-1		-1		-1		-1		-1		-1	
9	1	4	4	0.0	1.271553	1.0	1.297	0.985	0.985	0.985	0.985	1.0	1.0	1.0	1.0	1.0	1.0	1.0	1.0	1.0	1.0	1.0	1.0	1.0	1.0	1.0	1.0	1.0	0.0	3.9295	-1		-1		-1		-1		-1		-1		-1		-1		-1		-1	
10	1	4	5	0.0	1.3502622	1.0	2.2	1.467	1.467	1.467	1.467	1.0	1.0	1.0	1.0	1.0	1.0	1.0	1.0	1.0	1.0	1.0	1.0	1.0	1.0	1.0	1.0	1.0	0.0	4.2444444	-1		-1		-1		-1		-1		-1		-1		-1		-1		-1	
11	1	4	6	0.0	1.4338434	1.0	3.65	1.993	1.993	1.993	1.993	1.0	1.0	1.0	1.0	1.0	1.0	1.0	1.0	1.0	1.0	1.0	1.0	1.0	1.0	1.0	1.0	1.0	0.0	5.091682	-1		-1		-1		-1		-1		-1		-1		-1		-1		-1	
12	1	4	7	0.0	1.5225983	1.0	6.872	2.925	2.925	2.925	2.925	1.0	1.0	1.0	1.0	1.0	1.0	1.0	1.0	1.0	1.0	1.0	1.0	1.0	1.0	1.0	1.0	1.0	0.0	6.416536	-1		-1		-1		-1		-1		-1		-1		-1		-1		-1	
13	1	4	8	0.0	1.6168472	1.0	12.94	4.295	4.295	4.295	4.295	1.0	1.0	1.0	1.0	1.0	1.0	1.0	1.0	1.0	1.0	1.0	1.0	1.0	1.0	1.0	1.0	1.0	0.0	8.136801	-1		-1		-1		-1		-1		-1		-1		-1		-1		-1	
14	1	4	9	0.0	1.71693	1.0	24.369	6.308	6.308	6.308	6.308	1.0	1.0	1.0	1.0	1.0	1.0	1.0	1.0	1.0	1.0	1.0	1.0	1.0	1.0	1.0	1.0	1.0	0.0	10.395614	-1		-1		-1		-1		-1		-1		-1		-1		-1		-1	
15	1	4	10	0.0	1.823208	1.0	45.895	9.265	9.265	9.265	9.265	1.0	1.0	1.0	1.0	1.0	1.0	1.0	1.0	1.0	1.0	1.0	1.0	1.0	1.0	1.0	1.0	1.0	0.0	13.386443	-1		-1		-1		-1		-1		-1		-1		-1		-1		-1	
16	1	4	11	0.0	1.9360645	1.0	86.442	13.611	13.611	13.611	13.611	1.0	1.0	1.0	1.0	1.0	1.0	1.0	1.0	1.0	1.0	1.0	1.0	1.0	1.0	1.0	1.0	1.0	0.0	17.370417	-1		-1		-1		-1		-1		-1		-1		-1		-1		-1	
17	1	4	12	0.0	2.055907	1.0	162.814	19.995	19.995	19.995	19.995	1.0	1.0	1.0	1.0	1.0	1.0	1.0	1.0	1.0	1.0	1.0	1.0	1.0	1.0	1.0	1.0	1.0	0.0	22.699528	-1		-1		-1		-1		-1		-1		-1		-1		-1		-1	
18	1	4	13	0.0	2.1831675	1.0	306.666	29.376	29.376	29.376	29.376	1.0	1.0	1.0	1.0	1.0	1.0	1.0	1.0	1.0	1.0	1.0	1.0	1.0	1.0	1.0	1.0	1.0	0.0	29.847656	-1		-1		-1		-1		-1		-1		-1		-1		-1		-1	
19	1	4	14	0.0	2.3183057	1.0	577.619	43.162	43.162	43.162	43.162	1.0	1.0	1.0	1.0	1.0	1.0	1.0	1.0	1.0	1.0	1.0	1.0	1.0	1.0	1.0	1.0	1.0	0.0	39.45207	-1		-1		-1		-1		-1		-1		-1		-1		-1		-1	
20	1	4	15	0.0	2.4618087	1.0	1087.975	63.416	63.416	63.416	63.416	1.0	1.0	1.0	1.0	1.0	1.0	1.0	1.0	1.0	1.0	1.0	1.0	1.0	1.0	1.0	1.0	1.0	0.0	52.368805	-1		-1		-1		-1		-1		-1		-1		-1		-1		-1	
21	1	4	16	0.0	2.6141946	1.0	2048.656	93.158	93.158	93.158	93.158	1.0	1.0	1.0	1.0	1.0	1.0	1.0	1.0	1.0	1.0	1.0	1.0	1.0	1.0	1.0	1.0	1.0	0.0	65.45593	-1		-1		-1		-1		-1		-1		-1		-1		-1		-1	
22	1	4	17	0.0	2.7760134	1.0	3857.619	136.849	136.849	136.849	136.849	1.0	1.0	1.0	1.0	1.0	1.0	1.0	1.0	1.0	1.0	1.0	1.0	1.0	1.0	1.0	1.0	1.0	0.0	82.15879	-1		-1		-1		-1		-1		-1		-1		-1		-1		-1	
23	1	4	18	0.0	2.9478486	1.0	7263.896	201.031	201.031	201.031	201.031	1.0	1.0	1.0	1.0	1.0	1.0	1.0	1.0	1.0	1.0	1.0	1.0	1.0	1.0	1.0	1.0	1.0	0.0	103.47634	12	-100000	103	-450000	8	-30000	9	-30000	29	-1200	-1		-1		-1		-1		-1	
24	1	4	19	0.0	3.1303203	1.0	13677.916	295.314	295.314	295.314	295.314	1.0	1.0	1.0	1.0	1.0	1.0	1.0	1.0	1.0	1.0	1.0	1.0	1.0	1.0	1.0	1.0	1.0	0.0	130.68355	12	-200000	103	-900000	8	-60000	9	-60000	29	-2400	-1		-1		-1		-1		-1	
25	1	4	20	0.0	3.3240871	1.0	25755.516	433.816	433.816	433.816	433.816	1.0	1.0	1.0	1.0	1.0	1.0	1.0	1.0	1.0	1.0	1.0	1.0	1.0	1.0	1.0	1.0	1.0	0.0	165.4076	12	-300000	103	-1350000	8	-90000	9	-90000	29	-3600	-1		-1		-1		-1		-1	
26	1	4	21	0.0	3.5298483	1.0	48497.633	637.275	637.275	637.275	637.275	1.0	1.0	1.0	1.0	1.0	1.0	1.0	1.0	1.0	1.0	1.0	1.0	1.0	1.0	1.0	1.0	1.0	0.0	209.72525	12	-400000	103	-1800000	8	-120000	9	-120000	29	-4800	-1		-1		-1		-1		-1	
27	1	4	22	0.0	3.7483459	1.0	91321.05	936.156	936.156	936.156	936.156	1.0	1.0	1.0	1.0	1.0	1.0	1.0	1.0	1.0	1.0	1.0	1.0	1.0	1.0	1.0	1.0	1.0	0.0	266.28705	12	-500000	103	-2250000	8	-150000	9	-150000	29	-6000	-1		-1		-1		-1		-1	
28	1	4	23	0.0	3.9803684	1.0	171957.53	1375.213	1375.213	1375.213	1375.213	1.0	1.0	1.0	1.0	1.0	1.0	1.0	1.0	1.0	1.0	1.0	1.0	1.0	1.0	1.0	1.0	1.0	0.0	338.47586	12	-600000	103	-2700000	8	-180000	9	-180000	29	-7200	-1		-1		-1		-1		-1	
29	1	4	24	0.0	4.226753	1.0	323796.03	2020.187	2020.187	2020.187	2020.187	1.0	1.0	1.0	1.0	1.0	1.0	1.0	1.0	1.0	1.0	1.0	1.0	1.0	1.0	1.0	1.0	1.0	0.0	430.6091	12	-700000	103	-3150000	8	-210000	9	-210000	29	-8400	-1		-1		-1		-1		-1	
30	1	4	25	0.0	4.4883895	1.0	609707.9	2967.654	2967.654	2967.654	2967.654	1.0	1.0	1.0	1.0	1.0	1.0	1.0	1.0	1.0	1.0	1.0	1.0	1.0	1.0	1.0	1.0	1.0	0.0	548.197	12	-800000	103	-3600000	8	-240000	9	-240000	29	-9600	-1		-1		-1		-1		-1	
31	1	4	26	0.0	4.7662206	1.0	1148080.0	4359.483	4359.483	4359.483	4359.483	1.0	1.0	1.0	1.0	1.0	1.0	1.0	1.0	1.0	1.0	1.0	1.0	1.0	1.0	1.0	1.0	1.0	0.0	548.197	-1		-1		-1		-1		-1		-1		-1		-1		-1		-1	
32	1	4	27	0.0	5.0612497	1.0	2161834.5	6404.08	6404.08	6404.08	6404.08	1.0	1.0	1.0	1.0	1.0	1.0	1.0	1.0	1.0	1.0	1.0	1.0	1.0	1.0	1.0	1.0	1.0	0.0	548.197	-1		-1		-1		-1		-1		-1		-1		-1		-1		-1	
33	1	4	28	0.0	5.374541	1.0	4070734.5	9407.593	9407.593	9407.593	9407.593	1.0	1.0	1.0	1.0	1.0	1.0	1.0	1.0	1.0	1.0	1.0	1.0	1.0	1.0	1.0	1.0	1.0	0.0	548.197	-1		-1		-1		-1		-1		-1		-1		-1		-1		-1	
34	1	4	29	0.0	5.7072253	1.0	7665193.0	13819.754	13819.754	13819.754	13819.754	1.0	1.0	1.0	1.0	1.0	1.0	1.0	1.0	1.0	1.0	1.0	1.0	1.0	1.0	1.0	1.0	1.0	0.0	548.197	-1		-1		-1		-1		-1		-1		-1		-1		-1		-1	
35	1	4	30	0.0	6.0605025	1.0	1.4433559E7	20301.219	20301.219	20301.219	20301.219	1.0	1.0	1.0	1.0	1.0	1.0	1.0	1.0	1.0	1.0	1.0	1.0	1.0	1.0	1.0	1.0	1.0	0.0	548.197	-1		-1		-1		-1		-1		-1		-1		-1		-1		-1	
36	1	4	31	0.0	6.4356475	1.0	2.7178392E7	29822.488	29822.488	29822.488	29822.488	1.0	1.0	1.0	1.0	1.0	1.0	1.0	1.0	1.0	1.0	1.0	1.0	1.0	1.0	1.0	1.0	1.0	0.0	548.197	-1		-1		-1		-1		-1		-1		-1		-1		-1		-1	
37	1	4	32	0.0	6.834014	1.0	5.1176912E7	43809.234	43809.234	43809.234	43809.234	1.0	1.0	1.0	1.0	1.0	1.0	1.0	1.0	1.0	1.0	1.0	1.0	1.0	1.0	1.0	1.0	1.0	0.0	548.197	-1		-1		-1		-1		-1		-1		-1		-1		-1		-1	
38	1	4	33	0.0	7.2570395	1.0	9.636612E7	64355.766	64355.766	64355.766	64355.766	1.0	1.0	1.0	1.0	1.0	1.0	1.0	1.0	1.0	1.0	1.0	1.0	1.0	1.0	1.0	1.0	1.0	0.0	548.197	-1		-1		-1		-1		-1		-1		-1		-1		-1		-1	
39	1	4	34	0.0	7.70625	1.0	1.81457408E8	94538.62	94538.62	94538.62	94538.62	1.0	1.0	1.0	1.0	1.0	1.0	1.0	1.0	1.0	1.0	1.0	1.0	1.0	1.0	1.0	1.0	1.0	0.0	548.197	-1		-1		-1		-1		-1		-1		-1		-1		-1		-1	
40	1	4	35	0.0	8.183268	1.0	3.41684288E8	138877.23	138877.23	138877.23	138877.23	1.0	1.0	1.0	1.0	1.0	1.0	1.0	1.0	1.0	1.0	1.0	1.0	1.0	1.0	1.0	1.0	1.0	0.0	548.197	-1		-1		-1		-1		-1		-1		-1		-1		-1		-1	
41	1	4	36	0.0	8.689812	1.0	6.4339155E8	204010.66	204010.66	204010.66	204010.66	1.0	1.0	1.0	1.0	1.0	1.0	1.0	1.0	1.0	1.0	1.0	1.0	1.0	1.0	1.0	1.0	1.0	0.0	548.197	-1		-1		-1		-1		-1		-1		-1		-1		-1		-1	
42	1	4	37	0.0	9.227711	1.0	1.2115063E9	299691.66	299691.66	299691.66	299691.66	1.0	1.0	1.0	1.0	1.0	1.0	1.0	1.0	1.0	1.0	1.0	1.0	1.0	1.0	1.0	1.0	1.0	0.0	548.197	-1		-1		-1		-1		-1		-1		-1		-1		-1		-1	
43	1	4	38	0.0	9.798906	1.0	2.28126618E9	440247.03	440247.03	440247.03	440247.03	1.0	1.0	1.0	1.0	1.0	1.0	1.0	1.0	1.0	1.0	1.0	1.0	1.0	1.0	1.0	1.0	1.0	0.0	548.197	-1		-1		-1		-1		-1		-1		-1		-1		-1		-1	
44	1	4	39	0.0	10.405458	1.0	4.2956242E9	646722.9	646722.9	646722.9	646722.9	1.0	1.0	1.0	1.0	1.0	1.0	1.0	1.0	1.0	1.0	1.0	1.0	1.0	1.0	1.0	1.0	1.0	0.0	548.197	-1		-1		-1		-1		-1		-1		-1		-1		-1		-1	
45	1	4	40	0.0	11.049556	1.0	8.088661E9	950035.94	950035.94	950035.94	950035.94	1.0	1.0	1.0	1.0	1.0	1.0	1.0	1.0	1.0	1.0	1.0	1.0	1.0	1.0	1.0	1.0	1.0	0.0	548.197	-1		-1		-1		-1		-1		-1		-1		-1		-1		-1	
46	1	4	41	0.0	11.733523	1.0	1.52309484E10	1395602.8	1395602.8	1395602.8	1395602.8	1.0	1.0	1.0	1.0	1.0	1.0	1.0	1.0	1.0	1.0	1.0	1.0	1.0	1.0	1.0	1.0	1.0	0.0	548.197	-1		-1		-1		-1		-1		-1		-1		-1		-1		-1	
47	1	4	42	0.0	12.459828	1.0	2.86798766E10	2050140.5	2050140.5	2050140.5	2050140.5	1.0	1.0	1.0	1.0	1.0	1.0	1.0	1.0	1.0	1.0	1.0	1.0	1.0	1.0	1.0	1.0	1.0	0.0	548.197	-1		-1		-1		-1		-1		-1		-1		-1		-1		-1	
48	1	4	43	0.0	13.231092	1.0	5.4004208E10	3011656.5	3011656.5	3011656.5	3011656.5	1.0	1.0	1.0	1.0	1.0	1.0	1.0	1.0	1.0	1.0	1.0	1.0	1.0	1.0	1.0	1.0	1.0	0.0	548.197	-1		-1		-1		-1		-1		-1		-1		-1		-1		-1	
49	1	4	44	0.0	14.0500965	1.0	1.01689917E11	4424123.0	4424123.0	4424123.0	4424123.0	1.0	1.0	1.0	1.0	1.0	1.0	1.0	1.0	1.0	1.0	1.0	1.0	1.0	1.0	1.0	1.0	1.0	0.0	548.197	-1		-1		-1		-1		-1		-1		-1		-1		-1		-1	
50	1	4	45	0.0	14.919798	1.0	1.91482118E11	6499037.0	6499037.0	6499037.0	6499037.0	1.0	1.0	1.0	1.0	1.0	1.0	1.0	1.0	1.0	1.0	1.0	1.0	1.0	1.0	1.0	1.0	1.0	0.0	548.197	-1		-1		-1		-1		-1		-1		-1		-1		-1		-1	
51	1	4	46	0.0	15.843333	1.0	3.6056082E11	9547085.0	9547085.0	9547085.0	9547085.0	1.0	1.0	1.0	1.0	1.0	1.0	1.0	1.0	1.0	1.0	1.0	1.0	1.0	1.0	1.0	1.0	1.0	0.0	548.197	-1		-1		-1		-1		-1		-1		-1		-1		-1		-1	
52	1	4	47	0.0	16.824036	1.0	6.7893605E11	1.4024668E7	1.4024668E7	1.4024668E7	1.4024668E7	1.0	1.0	1.0	1.0	1.0	1.0	1.0	1.0	1.0	1.0	1.0	1.0	1.0	1.0	1.0	1.0	1.0	0.0	548.197	-1		-1		-1		-1		-1		-1		-1		-1		-1		-1	
53	1	4	48	0.0	17.865444	1.0	1.27843657E12	2.0602238E7	2.0602238E7	2.0602238E7	2.0602238E7	1.0	1.0	1.0	1.0	1.0	1.0	1.0	1.0	1.0	1.0	1.0	1.0	1.0	1.0	1.0	1.0	1.0	0.0	548.197	-1		-1		-1		-1		-1		-1		-1		-1		-1		-1	
54	1	4	49	0.0	18.971313	1.0	2.40729614E12	3.0264688E7	3.0264688E7	3.0264688E7	3.0264688E7	1.0	1.0	1.0	1.0	1.0	1.0	1.0	1.0	1.0	1.0	1.0	1.0	1.0	1.0	1.0	1.0	1.0	0.0	548.197	-1		-1		-1		-1		-1		-1		-1		-1		-1		-1	
55	1	4	50	0.0	20.14564	1.0	4.5329385E12	4.4458828E7	4.4458828E7	4.4458828E7	4.4458828E7	1.0	1.0	1.0	1.0	1.0	1.0	1.0	1.0	1.0	1.0	1.0	1.0	1.0	1.0	1.0	1.0	1.0	0.0	548.197	-1		-1		-1		-1		-1		-1		-1		-1		-1		-1	
56	1	4	51	0.0	21.392654	1.0	8.5355229E12	6.5310016E7	6.5310016E7	6.5310016E7	6.5310016E7	1.0	1.0	1.0	1.0	1.0	1.0	1.0	1.0	1.0	1.0	1.0	1.0	1.0	1.0	1.0	1.0	1.0	0.0	548.197	-1		-1		-1		-1		-1		-1		-1		-1		-1		-1	
57	1	4	52	0.0	22.71686	1.0	1.60723905E13	9.5940416E7	9.5940416E7	9.5940416E7	9.5940416E7	1.0	1.0	1.0	1.0	1.0	1.0	1.0	1.0	1.0	1.0	1.0	1.0	1.0	1.0	1.0	1.0	1.0	0.0	548.197	-1		-1		-1		-1		-1		-1		-1		-1		-1		-1	
58	1	4	53	0.0	24.123032	1.0	3.02643109E13	1.40936464E8	1.40936464E8	1.40936464E8	1.40936464E8	1.0	1.0	1.0	1.0	1.0	1.0	1.0	1.0	1.0	1.0	1.0	1.0	1.0	1.0	1.0	1.0	1.0	0.0	548.197	-1		-1		-1		-1		-1		-1		-1		-1		-1		-1	
59	1	4	54	0.0	25.61625	1.0	5.6987698E13	2.07035664E8	2.07035664E8	2.07035664E8	2.07035664E8	1.0	1.0	1.0	1.0	1.0	1.0	1.0	1.0	1.0	1.0	1.0	1.0	1.0	1.0	1.0	1.0	1.0	0.0	548.197	-1		-1		-1		-1		-1		-1		-1		-1		-1		-1	
60	1	4	55	0.0	25.61625	1.0	1.07307837E14	3.04135392E8	3.04135392E8	3.04135392E8	3.04135392E8	1.0	1.0	1.0	1.0	1.0	1.0	1.0	1.0	1.0	1.0	1.0	1.0	1.0	1.0	1.0	1.0	1.0	0.0	548.197	-1		-1		-1		-1		-1		-1		-1		-1		-1		-1	
61	1	4	56	0.0	25.61625	1.0	2.02060646E14	4.46774912E8	4.46774912E8	4.46774912E8	4.46774912E8	1.0	1.0	1.0	1.0	1.0	1.0	1.0	1.0	1.0	1.0	1.0	1.0	1.0	1.0	1.0	1.0	1.0	0.0	548.197	-1		-1		-1		-1		-1		-1		-1		-1		-1		-1	
62	1	4	57	0.0	25.61625	1.0	3.80480214E14	6.5631232E8	6.5631232E8	6.5631232E8	6.5631232E8	1.0	1.0	1.0	1.0	1.0	1.0	1.0	1.0	1.0	1.0	1.0	1.0	1.0	1.0	1.0	1.0	1.0	0.0	548.197	-1		-1		-1		-1		-1		-1		-1		-1		-1		-1	
63	1	4	58	0.0	25.61625	1.0	7.1644423E14	9.6412282E8	9.6412282E8	9.6412282E8	9.6412282E8	1.0	1.0	1.0	1.0	1.0	1.0	1.0	1.0	1.0	1.0	1.0	1.0	1.0	1.0	1.0	1.0	1.0	0.0	548.197	-1		-1		-1		-1		-1		-1		-1		-1		-1		-1	
64	1	4	59	0.0	25.61625	1.0	1.34906453E15	1.41629645E9	1.41629645E9	1.41629645E9	1.41629645E9	1.0	1.0	1.0	1.0	1.0	1.0	1.0	1.0	1.0	1.0	1.0	1.0	1.0	1.0	1.0	1.0	1.0	0.0	548.197	-1		-1		-1		-1		-1		-1		-1		-1		-1		-1	
65	1	4	60	0.0	25.61625	1.0	2.54028847E15	2.08053939E9	2.08053939E9	2.08053939E9	2.08053939E9	1.0	1.0	1.0	1.0	1.0	1.0	1.0	1.0	1.0	1.0	1.0	1.0	1.0	1.0	1.0	1.0	1.0	0.0	548.197	-1		-1		-1		-1		-1		-1		-1		-1		-1		-1	
66	1	4	61	0.0	25.61625	1.0	4.7833631E15	3.05631232E9	3.05631232E9	3.05631232E9	3.05631232E9	1.0	1.0	1.0	1.0	1.0	1.0	1.0	1.0	1.0	1.0	1.0	1.0	1.0	1.0	1.0	1.0	1.0	0.0	548.197	-1		-1		-1		-1		-1		-1		-1		-1		-1		-1	
67	1	4	62	0.0	25.61625	1.0	9.0070726E15	4.4897229E9	4.4897229E9	4.4897229E9	4.4897229E9	1.0	1.0	1.0	1.0	1.0	1.0	1.0	1.0	1.0	1.0	1.0	1.0	1.0	1.0	1.0	1.0	1.0	0.0	548.197	-1		-1		-1		-1		-1		-1		-1		-1		-1		-1	
68	1	4	63	0.0	25.61625	1.0	1.6960318E16	6.5954028E9	6.5954028E9	6.5954028E9	6.5954028E9	1.0	1.0	1.0	1.0	1.0	1.0	1.0	1.0	1.0	1.0	1.0	1.0	1.0	1.0	1.0	1.0	1.0	0.0	548.197	-1		-1		-1		-1		-1		-1		-1		-1		-1		-1	
69	1	4	64	0.0	25.61625	1.0	3.19362773E16	9.6886467E9	9.6886467E9	9.6886467E9	9.6886467E9	1.0	1.0	1.0	1.0	1.0	1.0	1.0	1.0	1.0	1.0	1.0	1.0	1.0	1.0	1.0	1.0	1.0	0.0	548.197	-1		-1		-1		-1		-1		-1		-1		-1		-1		-1	
70	1	4	65	0.0	25.61625	1.0	6.013601E16	1.42326221E10	1.42326221E10	1.42326221E10	1.42326221E10	1.0	1.0	1.0	1.0	1.0	1.0	1.0	1.0	1.0	1.0	1.0	1.0	1.0	1.0	1.0	1.0	1.0	0.0	548.197	-1		-1		-1		-1		-1		-1		-1		-1		-1		-1	
71	1	4	66	0.0	25.61625	1.0	1.13236108E17	2.09077228E10	2.09077228E10	2.09077228E10	2.09077228E10	1.0	1.0	1.0	1.0	1.0	1.0	1.0	1.0	1.0	1.0	1.0	1.0	1.0	1.0	1.0	1.0	1.0	0.0	548.197	-1		-1		-1		-1		-1		-1		-1		-1		-1		-1	
72	1	4	67	0.0	25.61625	1.0	2.132236E17	3.07134444E10	3.07134444E10	3.07134444E10	3.07134444E10	1.0	1.0	1.0	1.0	1.0	1.0	1.0	1.0	1.0	1.0	1.0	1.0	1.0	1.0	1.0	1.0	1.0	0.0	548.197	-1		-1		-1		-1		-1		-1		-1		-1		-1		-1	
73	1	4	68	0.0	25.61625	1.0	4.01500037E17	4.511805E10	4.511805E10	4.511805E10	4.511805E10	1.0	1.0	1.0	1.0	1.0	1.0	1.0	1.0	1.0	1.0	1.0	1.0	1.0	1.0	1.0	1.0	1.0	0.0	548.197	-1		-1		-1		-1		-1		-1		-1		-1		-1		-1	
74	1	4	69	0.0	25.61625	1.0	7.5602454E17	6.6278416E10	6.6278416E10	6.6278416E10	6.6278416E10	1.0	1.0	1.0	1.0	1.0	1.0	1.0	1.0	1.0	1.0	1.0	1.0	1.0	1.0	1.0	1.0	1.0	0.0	548.197	-1		-1		-1		-1		-1		-1		-1		-1		-1		-1	
75	1	4	70	0.0	25.61625	1.0	1.42359419E18	9.7362993E10	9.7362993E10	9.7362993E10	9.7362993E10	1.0	1.0	1.0	1.0	1.0	1.0	1.0	1.0	1.0	1.0	1.0	1.0	1.0	1.0	1.0	1.0	1.0	0.0	548.197	-1		-1		-1		-1		-1		-1		-1		-1		-1		-1	
76	1	4	71	0.0	25.61625	1.0	2.68062804E18	1.43026242E11	1.43026242E11	1.43026242E11	1.43026242E11	1.0	1.0	1.0	1.0	1.0	1.0	1.0	1.0	1.0	1.0	1.0	1.0	1.0	1.0	1.0	1.0	1.0	0.0	548.197	-1		-1		-1		-1		-1		-1		-1		-1		-1		-1	
77	1	4	72	0.0	25.61625	1.0	5.0476226E18	2.10105532E11	2.10105532E11	2.10105532E11	2.10105532E11	1.0	1.0	1.0	1.0	1.0	1.0	1.0	1.0	1.0	1.0	1.0	1.0	1.0	1.0	1.0	1.0	1.0	0.0	548.197	-1		-1		-1		-1		-1		-1		-1		-1		-1		-1	
78	1	4	73	0.0	25.61625	1.0	9.504673E18	3.08645036E11	3.08645036E11	3.08645036E11	3.08645036E11	1.0	1.0	1.0	1.0	1.0	1.0	1.0	1.0	1.0	1.0	1.0	1.0	1.0	1.0	1.0	1.0	1.0	0.0	548.197	-1		-1		-1		-1		-1		-1		-1		-1		-1		-1	
79	1	4	74	0.0	25.61625	1.0	1.7897299E19	4.53399544E11	4.53399544E11	4.53399544E11	4.53399544E11	1.0	1.0	1.0	1.0	1.0	1.0	1.0	1.0	1.0	1.0	1.0	1.0	1.0	1.0	1.0	1.0	1.0	0.0	548.197	-1		-1		-1		-1		-1		-1		-1		-1		-1		-1	
80	1	4	75	0.0	25.61625	1.0	3.3700614E19	6.6604394E11	6.6604394E11	6.6604394E11	6.6604394E11	1.0	1.0	1.0	1.0	1.0	1.0	1.0	1.0	1.0	1.0	1.0	1.0	1.0	1.0	1.0	1.0	1.0	0.0	548.197	-1		-1		-1		-1		-1		-1		-1		-1		-1		-1	
81	1	4	76	0.0	25.61625	1.0	6.3458256E19	9.7841853E11	9.7841853E11	9.7841853E11	9.7841853E11	1.0	1.0	1.0	1.0	1.0	1.0	1.0	1.0	1.0	1.0	1.0	1.0	1.0	1.0	1.0	1.0	1.0	0.0	548.197	-1		-1		-1		-1		-1		-1		-1		-1		-1		-1	
82	1	4	77	0.0	25.61625	1.0	1.194919E20	1.43729689E12	1.43729689E12	1.43729689E12	1.43729689E12	1.0	1.0	1.0	1.0	1.0	1.0	1.0	1.0	1.0	1.0	1.0	1.0	1.0	1.0	1.0	1.0	1.0	0.0	548.197	-1		-1		-1		-1		-1		-1		-1		-1		-1		-1	
83	1	4	78	0.0	25.61625	1.0	2.2500325E20	2.11138904E12	2.11138904E12	2.11138904E12	2.11138904E12	1.0	1.0	1.0	1.0	1.0	1.0	1.0	1.0	1.0	1.0	1.0	1.0	1.0	1.0	1.0	1.0	1.0	0.0	548.197	-1		-1		-1		-1		-1		-1		-1		-1		-1		-1	
84	1	4	79	0.0	25.61625	1.0	4.2368113E20	3.10163066E12	3.10163066E12	3.10163066E12	3.10163066E12	1.0	1.0	1.0	1.0	1.0	1.0	1.0	1.0	1.0	1.0	1.0	1.0	1.0	1.0	1.0	1.0	1.0	0.0	548.197	-1		-1		-1		-1		-1		-1		-1		-1		-1		-1	
85	1	4	80	0.0	25.61625	1.0	7.9779156E20	4.5562955E12	4.5562955E12	4.5562955E12	4.5562955E12	1.0	1.0	1.0	1.0	1.0	1.0	1.0	1.0	1.0	1.0	1.0	1.0	1.0	1.0	1.0	1.0	1.0	0.0	548.197	-1		-1		-1		-1		-1		-1		-1		-1		-1		-1	
86	1	4	81	0.0	25.61625	1.0	1.5022415E21	6.693198E12	6.693198E12	6.693198E12	6.693198E12	1.0	1.0	1.0	1.0	1.0	1.0	1.0	1.0	1.0	1.0	1.0	1.0	1.0	1.0	1.0	1.0	1.0	0.0	548.197	-1		-1		-1		-1		-1		-1		-1		-1		-1		-1	
87	1	4	82	0.0	25.61625	1.0	2.8287208E21	9.8323074E12	9.8323074E12	9.8323074E12	9.8323074E12	1.0	1.0	1.0	1.0	1.0	1.0	1.0	1.0	1.0	1.0	1.0	1.0	1.0	1.0	1.0	1.0	1.0	0.0	548.197	-1		-1		-1		-1		-1		-1		-1		-1		-1		-1	
88	1	4	83	0.0	25.61625	1.0	5.326481E21	1.44436594E13	1.44436594E13	1.44436594E13	1.44436594E13	1.0	1.0	1.0	1.0	1.0	1.0	1.0	1.0	1.0	1.0	1.0	1.0	1.0	1.0	1.0	1.0	1.0	0.0	548.197	-1		-1		-1		-1		-1		-1		-1		-1		-1		-1	
89	1	4	84	0.0	25.61625	1.0	1.0029764E22	2.12177361E13	2.12177361E13	2.12177361E13	2.12177361E13	1.0	1.0	1.0	1.0	1.0	1.0	1.0	1.0	1.0	1.0	1.0	1.0	1.0	1.0	1.0	1.0	1.0	0.0	548.197	-1		-1		-1		-1		-1		-1		-1		-1		-1		-1	
90	1	4	85	0.0	25.61625	1.0	1.8886045E22	3.11688545E13	3.11688545E13	3.11688545E13	3.11688545E13	1.0	1.0	1.0	1.0	1.0	1.0	1.0	1.0	1.0	1.0	1.0	1.0	1.0	1.0	1.0	1.0	1.0	0.0	548.197	-1		-1		-1		-1		-1		-1		-1		-1		-1		-1	
91	1	4	86	0.0	25.61625	1.0	3.5562422E22	4.5787048E13	4.5787048E13	4.5787048E13	4.5787048E13	1.0	1.0	1.0	1.0	1.0	1.0	1.0	1.0	1.0	1.0	1.0	1.0	1.0	1.0	1.0	1.0	1.0	0.0	548.197	-1		-1		-1		-1		-1		-1		-1		-1		-1		-1	
92	1	4	87	0.0	25.61625	1.0	6.696404E22	6.7261172E13	6.7261172E13	6.7261172E13	6.7261172E13	1.0	1.0	1.0	1.0	1.0	1.0	1.0	1.0	1.0	1.0	1.0	1.0	1.0	1.0	1.0	1.0	1.0	0.0	548.197	-1		-1		-1		-1		-1		-1		-1		-1		-1		-1	
93	1	4	88	0.0	25.61625	1.0	1.260933E23	9.8806662E13	9.8806662E13	9.8806662E13	9.8806662E13	1.0	1.0	1.0	1.0	1.0	1.0	1.0	1.0	1.0	1.0	1.0	1.0	1.0	1.0	1.0	1.0	1.0	0.0	548.197	-1		-1		-1		-1		-1		-1		-1		-1		-1		-1	
94	1	4	89	0.0	25.61625	1.0	2.3743366E23	1.45146994E14	1.45146994E14	1.45146994E14	1.45146994E14	1.0	1.0	1.0	1.0	1.0	1.0	1.0	1.0	1.0	1.0	1.0	1.0	1.0	1.0	1.0	1.0	1.0	0.0	548.197	-1		-1		-1		-1		-1		-1		-1		-1		-1		-1	
95	1	4	90	0.0	25.61625	1.0	4.470876E23	2.13220917E14	2.13220917E14	2.13220917E14	2.13220917E14	1.0	1.0	1.0	1.0	1.0	1.0	1.0	1.0	1.0	1.0	1.0	1.0	1.0	1.0	1.0	1.0	1.0	0.0	548.197	-1		-1		-1		-1		-1		-1		-1		-1		-1		-1	
96	1	4	91	0.0	25.61625	1.0	8.4186595E23	3.13221529E14	3.13221529E14	3.13221529E14	3.13221529E14	1.0	1.0	1.0	1.0	1.0	1.0	1.0	1.0	1.0	1.0	1.0	1.0	1.0	1.0	1.0	1.0	1.0	0.0	548.197	-1		-1		-1		-1		-1		-1		-1		-1		-1		-1	
97	1	4	92	0.0	25.61625	1.0	1.5852336E24	4.6012243E14	4.6012243E14	4.6012243E14	4.6012243E14	1.0	1.0	1.0	1.0	1.0	1.0	1.0	1.0	1.0	1.0	1.0	1.0	1.0	1.0	1.0	1.0	1.0	0.0	548.197	-1		-1		-1		-1		-1		-1		-1		-1		-1		-1	
98	1	4	93	0.0	25.61625	1.0	2.9849948E24	6.7591987E14	6.7591987E14	6.7591987E14	6.7591987E14	1.0	1.0	1.0	1.0	1.0	1.0	1.0	1.0	1.0	1.0	1.0	1.0	1.0	1.0	1.0	1.0	1.0	0.0	548.197	-1		-1		-1		-1		-1		-1		-1		-1		-1		-1	
99	1	4	94	0.0	25.61625	1.0	5.6207454E24	9.9292631E14	9.9292631E14	9.9292631E14	9.9292631E14	1.0	1.0	1.0	1.0	1.0	1.0	1.0	1.0	1.0	1.0	1.0	1.0	1.0	1.0	1.0	1.0	1.0	0.0	548.197	-1		-1		-1		-1		-1		-1		-1		-1		-1		-1	
100	1	4	95	0.0	25.61625	1.0	1.0583863E25	1.45860874E15	1.45860874E15	1.45860874E15	1.45860874E15	1.0	1.0	1.0	1.0	1.0	1.0	1.0	1.0	1.0	1.0	1.0	1.0	1.0	1.0	1.0	1.0	1.0	0.0	548.197	-1		-1		-1		-1		-1		-1		-1		-1		-1		-1	
101	1	4	96	0.0	25.61625	1.0	1.9929415E25	2.14269624E15	2.14269624E15	2.14269624E15	2.14269624E15	1.0	1.0	1.0	1.0	1.0	1.0	1.0	1.0	1.0	1.0	1.0	1.0	1.0	1.0	1.0	1.0	1.0	0.0	548.197	-1		-1		-1		-1		-1		-1		-1		-1		-1		-1	
102	1	4	97	0.0	25.61625	1.0	3.7527088E25	3.14762074E15	3.14762074E15	3.14762074E15	3.14762074E15	1.0	1.0	1.0	1.0	1.0	1.0	1.0	1.0	1.0	1.0	1.0	1.0	1.0	1.0	1.0	1.0	1.0	0.0	548.197	-1		-1		-1		-1		-1		-1		-1		-1		-1		-1	
103	1	4	98	0.0	25.61625	1.0	7.0663504E25	4.623855E15	4.623855E15	4.623855E15	4.623855E15	1.0	1.0	1.0	1.0	1.0	1.0	1.0	1.0	1.0	1.0	1.0	1.0	1.0	1.0	1.0	1.0	1.0	0.0	548.197	-1		-1		-1		-1		-1		-1		-1		-1		-1		-1	
104	1	4	99	0.0	25.61625	1.0	1.3305938E26	6.7924425E15	6.7924425E15	6.7924425E15	6.7924425E15	1.0	1.0	1.0	1.0	1.0	1.0	1.0	1.0	1.0	1.0	1.0	1.0	1.0	1.0	1.0	1.0	1.0	0.0	548.197	-1		-1		-1		-1		-1		-1		-1		-1		-1		-1	
105	1	4	100	0.0	25.61625	1.0	2.5055082E26	9.9780981E15	9.9780981E15	9.9780981E15	9.9780981E15	1.0	1.0	1.0	1.0	1.0	1.0	1.0	1.0	1.0	1.0	1.0	1.0	1.0	1.0	1.0	1.0	1.0	0.0	548.197	-1		-1		-1		-1		-1		-1		-1		-1		-1		-1	
106	0	1	0	1.0	1.0	1.0	0.3	0.1	0.1	0.1	0.1	1.0	1.0	1.0	1.0	1.0	1.0	1.0	1.0	1.0	1.0	1.0	1.0	1.0	1.0	1.0	1.0	1.0	0.0	1.0	-1		-1		-1		-1		-1		-1		-1		-1		-1		-1	
107	0	1	1	1.2	1.2	1.0	0.7	0.2	0.2	0.2	0.2	1.0	1.0	1.0	1.0	1.0	1.0	1.0	1.0	1.0	1.0	1.0	1.0	1.0	1.0	1.0	1.0	1.0	0.0	1.657	-1		-1		-1		-1		-1		-1		-1		-1		-1		-1	
108	0	1	2	1.4	1.4	1.0	1.2	0.3	0.3	0.3	0.3	1.0	1.0	1.0	1.0	1.0	1.0	1.0	1.0	1.0	1.0	1.0	1.0	1.0	1.0	1.0	1.0	1.0	0.0	1.8666667	-1		-1		-1		-1		-1		-1		-1		-1		-1		-1	
109	0	1	3	1.6	1.6	1.0	2.4	0.5	0.5	0.5	0.5	1.0	1.0	1.0	1.0	1.0	1.0	1.0	1.0	1.0	1.0	1.0	1.0	1.0	1.0	1.0	1.0	1.0	0.0	2.0766666	-1		-1		-1		-1		-1		-1		-1		-1		-1		-1	
110	0	1	4	1.8	1.8	1.0	4.8	0.8	0.8	0.8	0.8	1.0	1.0	1.0	1.0	1.0	1.0	1.0	1.0	1.0	1.0	1.0	1.0	1.0	1.0	1.0	1.0	1.0	0.0	2.2863333	-1		-1		-1		-1		-1		-1		-1		-1		-1		-1	
111	0	1	5	2.0	2.0	1.0	22.5225	0.8837754	0.8837754	0.8837754	0.8837754	1.0	1.0	1.0	1.0	1.0	1.0	1.0	1.0	1.0	1.0	1.0	1.0	1.0	1.0	1.0	1.0	1.0	0.0	2.4962964	-1		-1		-1		-1		-1		-1		-1		-1		-1		-1	
112	0	1	6	2.2	2.2	1.0	37.37662	1.2023695	1.2023695	1.2023695	1.2023695	1.0	1.0	1.0	1.0	1.0	1.0	1.0	1.0	1.0	1.0	1.0	1.0	1.0	1.0	1.0	1.0	1.0	0.0	3.0611215	-1		-1		-1		-1		-1		-1		-1		-1		-1		-1	
113	0	1	7	2.4	2.4	1.0	70.401085	1.7666728	1.7666728	1.7666728	1.7666728	1.0	1.0	1.0	1.0	1.0	1.0	1.0	1.0	1.0	1.0	1.0	1.0	1.0	1.0	1.0	1.0	1.0	0.0	3.9443572	-1		-1		-1		-1		-1		-1		-1		-1		-1		-1	
114	0	1	8	2.6	2.6	1.0	132.60461	2.595819	2.595819	2.595819	2.595819	1.0	1.0	1.0	1.0	1.0	1.0	1.0	1.0	1.0	1.0	1.0	1.0	1.0	1.0	1.0	1.0	1.0	0.0	5.0912004	-1		-1		-1		-1		-1		-1		-1		-1		-1		-1	
115	0	1	9	2.8	2.8	1.0	249.76868	3.5598402	3.5598402	3.5598402	3.5598402	1.0	1.0	1.0	1.0	1.0	1.0	1.0	1.0	1.0	1.0	1.0	1.0	1.0	1.0	1.0	1.0	1.0	0.0	6.597076	-1		-1		-1		-1		-1		-1		-1		-1		-1		-1	
116	0	1	10	3.0	3.0	1.0	470.4541	4.8569593	4.8569593	4.8569593	4.8569593	1.0	1.0	1.0	1.0	1.0	1.0	1.0	1.0	1.0	1.0	1.0	1.0	1.0	1.0	1.0	1.0	1.0	0.0	8.590961	-1		-1		-1		-1		-1		-1		-1		-1		-1		-1	
117	0	1	11	3.2	3.2	1.0	886.12823	6.587506	6.587506	6.587506	6.587506	1.0	1.0	1.0	1.0	1.0	1.0	1.0	1.0	1.0	1.0	1.0	1.0	1.0	1.0	1.0	1.0	1.0	0.0	11.246944	-1		-1		-1		-1		-1		-1		-1		-1		-1		-1	
118	0	1	12	3.4	3.4	1.0	1669.0752	8.872607	8.872607	8.872607	8.872607	1.0	1.0	1.0	1.0	1.0	1.0	1.0	1.0	1.0	1.0	1.0	1.0	1.0	1.0	1.0	1.0	1.0	0.0	14.799685	-1		-1		-1		-1		-1		-1		-1		-1		-1		-1	
119	0	1	13	3.6	3.6	1.0	3143.802	13.025482	13.025482	13.025482	13.025482	1.0	1.0	1.0	1.0	1.0	1.0	1.0	1.0	1.0	1.0	1.0	1.0	1.0	1.0	1.0	1.0	1.0	0.0	19.565105	-1		-1		-1		-1		-1		-1		-1		-1		-1		-1	
120	0	1	14	3.8	3.8	1.0	5921.5376	19.045832	19.045832	19.045832	19.045832	1.0	1.0	1.0	1.0	1.0	1.0	1.0	1.0	1.0	1.0	1.0	1.0	1.0	1.0	1.0	1.0	1.0	0.0	25.968044	-1		-1		-1		-1		-1		-1		-1		-1		-1		-1	
121	0	1	15	4.0	4.0	1.0	11153.567	27.292519	27.292519	27.292519	27.292519	1.0	1.0	1.0	1.0	1.0	1.0	1.0	1.0	1.0	1.0	1.0	1.0	1.0	1.0	1.0	1.0	1.0	0.0	34.579205	-1		-1		-1		-1		-1		-1		-1		-1		-1		-1	
122	0	1	16	4.2	4.2	1.0	21002.168	40.092	40.092	40.092	40.092	1.0	1.0	1.0	1.0	1.0	1.0	1.0	1.0	1.0	1.0	1.0	1.0	1.0	1.0	1.0	1.0	1.0	0.0	43.303955	-1		-1		-1		-1		-1		-1		-1		-1		-1		-1	
123	0	1	17	4.4	4.4	1.0	39547.082	58.895	58.895	58.895	58.895	1.0	1.0	1.0	1.0	1.0	1.0	1.0	1.0	1.0	1.0	1.0	1.0	1.0	1.0	1.0	1.0	1.0	0.0	54.439194	-1		-1		-1		-1		-1		-1		-1		-1		-1		-1	
124	0	1	18	4.6	4.6	1.0	74467.16	86.516	86.516	86.516	86.516	1.0	1.0	1.0	1.0	1.0	1.0	1.0	1.0	1.0	1.0	1.0	1.0	1.0	1.0	1.0	1.0	1.0	0.0	68.650894	12	-100000	103	-450000	8	-30000	9	-30000	29	-1200	-1		-1		-1		-1		-1	
125	0	1	19	4.8	4.8	1.0	140221.66	127.092	127.092	127.092	127.092	1.0	1.0	1.0	1.0	1.0	1.0	1.0	1.0	1.0	1.0	1.0	1.0	1.0	1.0	1.0	1.0	1.0	0.0	86.78903	12	-200000	103	-900000	8	-60000	9	-60000	29	-2400	-1		-1		-1		-1		-1	
126	0	1	20	5.0	5.0	1.0	264037.38	186.698	186.698	186.698	186.698	1.0	1.0	1.0	1.0	1.0	1.0	1.0	1.0	1.0	1.0	1.0	1.0	1.0	1.0	1.0	1.0	1.0	0.0	109.93839	12	-300000	103	-1350000	8	-90000	9	-90000	29	-3600	-1		-1		-1		-1		-1	
127	0	1	21	5.2	5.2	1.0	497182.38	274.259	274.259	274.259	274.259	1.0	1.0	1.0	1.0	1.0	1.0	1.0	1.0	1.0	1.0	1.0	1.0	1.0	1.0	1.0	1.0	1.0	0.0	139.4835	12	-400000	103	-1800000	8	-120000	9	-120000	29	-4800	-1		-1		-1		-1		-1	
128	0	1	22	5.4	5.4	1.0	936194.4	402.886	402.886	402.886	402.886	1.0	1.0	1.0	1.0	1.0	1.0	1.0	1.0	1.0	1.0	1.0	1.0	1.0	1.0	1.0	1.0	1.0	0.0	177.19138	12	-500000	103	-2250000	8	-150000	9	-150000	29	-6000	-1		-1		-1		-1		-1	
129	0	1	23	5.6	5.6	1.0	1762854.0	591.839	591.839	591.839	591.839	1.0	1.0	1.0	1.0	1.0	1.0	1.0	1.0	1.0	1.0	1.0	1.0	1.0	1.0	1.0	1.0	1.0	0.0	225.31723	12	-600000	103	-2700000	8	-180000	9	-180000	29	-7200	-1		-1		-1		-1		-1	
130	0	1	24	5.8	5.8	1.0	3319454.2	869.411	869.411	869.411	869.411	1.0	1.0	1.0	1.0	1.0	1.0	1.0	1.0	1.0	1.0	1.0	1.0	1.0	1.0	1.0	1.0	1.0	0.0	286.73938	12	-700000	103	-3150000	8	-210000	9	-210000	29	-8400	-1		-1		-1		-1		-1	
131	0	1	25	6.0	6.0	1.0	6250532.0	1277.164	1277.164	1277.164	1277.164	1.0	1.0	1.0	1.0	1.0	1.0	1.0	1.0	1.0	1.0	1.0	1.0	1.0	1.0	1.0	1.0	1.0	0.0	365.13135	12	-800000	103	-3600000	8	-240000	9	-240000	29	-9600	-1		-1		-1		-1		-1	
132	0	1	26	6.2	6.2	1.0	1.1769752E7	1876.153	1876.153	1876.153	1876.153	1.0	1.0	1.0	1.0	1.0	1.0	1.0	1.0	1.0	1.0	1.0	1.0	1.0	1.0	1.0	1.0	1.0	0.0	365.13135	-1		-1		-1		-1		-1		-1		-1		-1		-1		-1	
133	0	1	27	6.4	6.4	1.0	2.2162444E7	2756.068	2756.068	2756.068	2756.068	1.0	1.0	1.0	1.0	1.0	1.0	1.0	1.0	1.0	1.0	1.0	1.0	1.0	1.0	1.0	1.0	1.0	0.0	365.13135	-1		-1		-1		-1		-1		-1		-1		-1		-1		-1	
134	0	1	28	6.6	6.6	1.0	4.173188E7	4048.663	4048.663	4048.663	4048.663	1.0	1.0	1.0	1.0	1.0	1.0	1.0	1.0	1.0	1.0	1.0	1.0	1.0	1.0	1.0	1.0	1.0	0.0	365.13135	-1		-1		-1		-1		-1		-1		-1		-1		-1		-1	
135	0	1	29	6.8	6.8	1.0	7.8581128E7	5947.485	5947.485	5947.485	5947.485	1.0	1.0	1.0	1.0	1.0	1.0	1.0	1.0	1.0	1.0	1.0	1.0	1.0	1.0	1.0	1.0	1.0	0.0	365.13135	-1		-1		-1		-1		-1		-1		-1		-1		-1		-1	
136	0	1	30	7.0	7.0	1.0	1.47968272E8	8736.855	8736.855	8736.855	8736.855	1.0	1.0	1.0	1.0	1.0	1.0	1.0	1.0	1.0	1.0	1.0	1.0	1.0	1.0	1.0	1.0	1.0	0.0	365.13135	-1		-1		-1		-1		-1		-1		-1		-1		-1		-1	
137	0	1	31	7.2	7.2	1.0	2.78624256E8	12834.439	12834.439	12834.439	12834.439	1.0	1.0	1.0	1.0	1.0	1.0	1.0	1.0	1.0	1.0	1.0	1.0	1.0	1.0	1.0	1.0	1.0	0.0	365.13135	-1		-1		-1		-1		-1		-1		-1		-1		-1		-1	
138	0	1	32	7.4	7.4	1.0	5.24649472E8	18853.79	18853.79	18853.79	18853.79	1.0	1.0	1.0	1.0	1.0	1.0	1.0	1.0	1.0	1.0	1.0	1.0	1.0	1.0	1.0	1.0	1.0	0.0	365.13135	-1		-1		-1		-1		-1		-1		-1		-1		-1		-1	
139	0	1	33	7.6	7.6	1.0	9.8791494E8	27696.217	27696.217	27696.217	27696.217	1.0	1.0	1.0	1.0	1.0	1.0	1.0	1.0	1.0	1.0	1.0	1.0	1.0	1.0	1.0	1.0	1.0	0.0	365.13135	-1		-1		-1		-1		-1		-1		-1		-1		-1		-1	
140	0	1	34	7.8	7.8	1.0	1.86024384E9	40685.742	40685.742	40685.742	40685.742	1.0	1.0	1.0	1.0	1.0	1.0	1.0	1.0	1.0	1.0	1.0	1.0	1.0	1.0	1.0	1.0	1.0	0.0	365.13135	-1		-1		-1		-1		-1		-1		-1		-1		-1		-1	
141	0	1	35	8.0	8.0	1.0	3.5028393E9	59767.355	59767.355	59767.355	59767.355	1.0	1.0	1.0	1.0	1.0	1.0	1.0	1.0	1.0	1.0	1.0	1.0	1.0	1.0	1.0	1.0	1.0	0.0	365.13135	-1		-1		-1		-1		-1		-1		-1		-1		-1		-1	
142	0	1	36	8.2	8.2	1.0	6.5958461E9	87798.24	87798.24	87798.24	87798.24	1.0	1.0	1.0	1.0	1.0	1.0	1.0	1.0	1.0	1.0	1.0	1.0	1.0	1.0	1.0	1.0	1.0	0.0	365.13135	-1		-1		-1		-1		-1		-1		-1		-1		-1		-1	
143	0	1	37	8.4	8.4	1.0	1.24199782E10	128975.62	128975.62	128975.62	128975.62	1.0	1.0	1.0	1.0	1.0	1.0	1.0	1.0	1.0	1.0	1.0	1.0	1.0	1.0	1.0	1.0	1.0	0.0	365.13135	-1		-1		-1		-1		-1		-1		-1		-1		-1		-1	
144	0	1	38	8.6	8.6	1.0	2.33868186E10	189465.19	189465.19	189465.19	189465.19	1.0	1.0	1.0	1.0	1.0	1.0	1.0	1.0	1.0	1.0	1.0	1.0	1.0	1.0	1.0	1.0	1.0	0.0	365.13135	-1		-1		-1		-1		-1		-1		-1		-1		-1		-1	
145	0	1	39	8.8	8.8	1.0	4.4037382E10	278324.34	278324.34	278324.34	278324.34	1.0	1.0	1.0	1.0	1.0	1.0	1.0	1.0	1.0	1.0	1.0	1.0	1.0	1.0	1.0	1.0	1.0	0.0	365.13135	-1		-1		-1		-1		-1		-1		-1		-1		-1		-1	
146	0	1	40	9.0	9.0	1.0	8.292239E10	408858.47	408858.47	408858.47	408858.47	1.0	1.0	1.0	1.0	1.0	1.0	1.0	1.0	1.0	1.0	1.0	1.0	1.0	1.0	1.0	1.0	1.0	0.0	365.13135	-1		-1		-1		-1		-1		-1		-1		-1		-1		-1	
147	0	1	41	9.2	9.2	1.0	1.56142862E11	600613.1	600613.1	600613.1	600613.1	1.0	1.0	1.0	1.0	1.0	1.0	1.0	1.0	1.0	1.0	1.0	1.0	1.0	1.0	1.0	1.0	1.0	0.0	365.13135	-1		-1		-1		-1		-1		-1		-1		-1		-1		-1	
148	0	1	42	9.4	9.4	1.0	2.94017008E11	882300.6	882300.6	882300.6	882300.6	1.0	1.0	1.0	1.0	1.0	1.0	1.0	1.0	1.0	1.0	1.0	1.0	1.0	1.0	1.0	1.0	1.0	0.0	365.13135	-1		-1		-1		-1		-1		-1		-1		-1		-1		-1	
149	0	1	43	9.6	9.6	1.0	5.5363404E11	1296099.6	1296099.6	1296099.6	1296099.6	1.0	1.0	1.0	1.0	1.0	1.0	1.0	1.0	1.0	1.0	1.0	1.0	1.0	1.0	1.0	1.0	1.0	0.0	365.13135	-1		-1		-1		-1		-1		-1		-1		-1		-1		-1	
150	0	1	44	9.8	9.8	1.0	1.04249282E12	1903970.4	1903970.4	1903970.4	1903970.4	1.0	1.0	1.0	1.0	1.0	1.0	1.0	1.0	1.0	1.0	1.0	1.0	1.0	1.0	1.0	1.0	1.0	0.0	365.13135	-1		-1		-1		-1		-1		-1		-1		-1		-1		-1	
151	0	1	45	10.0	10.0	1.0	1.96301396E12	2796932.5	2796932.5	2796932.5	2796932.5	1.0	1.0	1.0	1.0	1.0	1.0	1.0	1.0	1.0	1.0	1.0	1.0	1.0	1.0	1.0	1.0	1.0	0.0	365.13135	-1		-1		-1		-1		-1		-1		-1		-1		-1		-1	
152	0	1	46	10.2	10.2	1.0	3.69635544E12	4108693.8	4108693.8	4108693.8	4108693.8	1.0	1.0	1.0	1.0	1.0	1.0	1.0	1.0	1.0	1.0	1.0	1.0	1.0	1.0	1.0	1.0	1.0	0.0	365.13135	-1		-1		-1		-1		-1		-1		-1		-1		-1		-1	
153	0	1	47	10.4	10.4	1.0	6.9602372E12	6035671.0	6035671.0	6035671.0	6035671.0	1.0	1.0	1.0	1.0	1.0	1.0	1.0	1.0	1.0	1.0	1.0	1.0	1.0	1.0	1.0	1.0	1.0	0.0	365.13135	-1		-1		-1		-1		-1		-1		-1		-1		-1		-1	
154	0	1	48	10.6	10.6	1.0	1.31061263E13	8866401.0	8866401.0	8866401.0	8866401.0	1.0	1.0	1.0	1.0	1.0	1.0	1.0	1.0	1.0	1.0	1.0	1.0	1.0	1.0	1.0	1.0	1.0	0.0	365.13135	-1		-1		-1		-1		-1		-1		-1		-1		-1		-1	
155	0	1	49	10.8	10.8	1.0	2.46788359E13	1.3024743E7	1.3024743E7	1.3024743E7	1.3024743E7	1.0	1.0	1.0	1.0	1.0	1.0	1.0	1.0	1.0	1.0	1.0	1.0	1.0	1.0	1.0	1.0	1.0	0.0	365.13135	-1		-1		-1		-1		-1		-1		-1		-1		-1		-1	
156	0	1	50	11.0	11.0	1.0	4.647025E13	1.9133348E7	1.9133348E7	1.9133348E7	1.9133348E7	1.0	1.0	1.0	1.0	1.0	1.0	1.0	1.0	1.0	1.0	1.0	1.0	1.0	1.0	1.0	1.0	1.0	0.0	365.13135	-1		-1		-1		-1		-1		-1		-1		-1		-1		-1	
157	0	1	51	11.2	11.2	1.0	8.7503483E13	2.8106888E7	2.8106888E7	2.8106888E7	2.8106888E7	1.0	1.0	1.0	1.0	1.0	1.0	1.0	1.0	1.0	1.0	1.0	1.0	1.0	1.0	1.0	1.0	1.0	0.0	365.13135	-1		-1		-1		-1		-1		-1		-1		-1		-1		-1	
158	0	1	52	11.4	11.4	1.0	1.64769055E14	4.1289016E7	4.1289016E7	4.1289016E7	4.1289016E7	1.0	1.0	1.0	1.0	1.0	1.0	1.0	1.0	1.0	1.0	1.0	1.0	1.0	1.0	1.0	1.0	1.0	0.0	365.13135	-1		-1		-1		-1		-1		-1		-1		-1		-1		-1	
159	0	1	53	11.6	11.6	1.0	3.10260116E14	6.0653568E7	6.0653568E7	6.0653568E7	6.0653568E7	1.0	1.0	1.0	1.0	1.0	1.0	1.0	1.0	1.0	1.0	1.0	1.0	1.0	1.0	1.0	1.0	1.0	0.0	365.13135	-1		-1		-1		-1		-1		-1		-1		-1		-1		-1	
160	0	1	54	11.8	11.8	1.0	5.8421984E14	8.9100088E7	8.9100088E7	8.9100088E7	8.9100088E7	1.0	1.0	1.0	1.0	1.0	1.0	1.0	1.0	1.0	1.0	1.0	1.0	1.0	1.0	1.0	1.0	1.0	0.0	365.13135	-1		-1		-1		-1		-1		-1		-1		-1		-1		-1	
161	0	1	55	12.0	12.0	1.0	1.10008588E15	1.30888032E8	1.30888032E8	1.30888032E8	1.30888032E8	1.0	1.0	1.0	1.0	1.0	1.0	1.0	1.0	1.0	1.0	1.0	1.0	1.0	1.0	1.0	1.0	1.0	0.0	365.13135	-1		-1		-1		-1		-1		-1		-1		-1		-1		-1	
162	0	1	56	12.2	12.2	1.0	2.07146179E15	1.92274512E8	1.92274512E8	1.92274512E8	1.92274512E8	1.0	1.0	1.0	1.0	1.0	1.0	1.0	1.0	1.0	1.0	1.0	1.0	1.0	1.0	1.0	1.0	1.0	0.0	365.13135	-1		-1		-1		-1		-1		-1		-1		-1		-1		-1	
163	0	1	57	12.4	12.4	1.0	3.9005626E15	2.82451264E8	2.82451264E8	2.82451264E8	2.82451264E8	1.0	1.0	1.0	1.0	1.0	1.0	1.0	1.0	1.0	1.0	1.0	1.0	1.0	1.0	1.0	1.0	1.0	0.0	365.13135	-1		-1		-1		-1		-1		-1		-1		-1		-1		-1	
164	0	1	58	12.6	12.6	1.0	7.3447591E15	4.14920928E8	4.14920928E8	4.14920928E8	4.14920928E8	1.0	1.0	1.0	1.0	1.0	1.0	1.0	1.0	1.0	1.0	1.0	1.0	1.0	1.0	1.0	1.0	1.0	0.0	365.13135	-1		-1		-1		-1		-1		-1		-1		-1		-1		-1	
165	0	1	59	12.8	12.8	1.0	1.38301812E16	6.0951885E8	6.0951885E8	6.0951885E8	6.0951885E8	1.0	1.0	1.0	1.0	1.0	1.0	1.0	1.0	1.0	1.0	1.0	1.0	1.0	1.0	1.0	1.0	1.0	0.0	365.13135	-1		-1		-1		-1		-1		-1		-1		-1		-1		-1	
166	0	1	60	13.0	13.0	1.0	2.60422314E16	8.9538317E8	8.9538317E8	8.9538317E8	8.9538317E8	1.0	1.0	1.0	1.0	1.0	1.0	1.0	1.0	1.0	1.0	1.0	1.0	1.0	1.0	1.0	1.0	1.0	0.0	365.13135	-1		-1		-1		-1		-1		-1		-1		-1		-1		-1	
167	0	1	61	13.2	13.2	1.0	4.9037523E16	1.31531789E9	1.31531789E9	1.31531789E9	1.31531789E9	1.0	1.0	1.0	1.0	1.0	1.0	1.0	1.0	1.0	1.0	1.0	1.0	1.0	1.0	1.0	1.0	1.0	0.0	365.13135	-1		-1		-1		-1		-1		-1		-1		-1		-1		-1	
168	0	1	62	13.4	13.4	1.0	9.2337657E16	1.93220186E9	1.93220186E9	1.93220186E9	1.93220186E9	1.0	1.0	1.0	1.0	1.0	1.0	1.0	1.0	1.0	1.0	1.0	1.0	1.0	1.0	1.0	1.0	1.0	0.0	365.13135	-1		-1		-1		-1		-1		-1		-1		-1		-1		-1	
169	0	1	63	13.6	13.6	1.0	1.73871804E17	2.83840461E9	2.83840461E9	2.83840461E9	2.83840461E9	1.0	1.0	1.0	1.0	1.0	1.0	1.0	1.0	1.0	1.0	1.0	1.0	1.0	1.0	1.0	1.0	1.0	0.0	365.13135	-1		-1		-1		-1		-1		-1		-1		-1		-1		-1	
170	0	1	64	13.8	13.8	1.0	3.27400615E17	4.16961638E9	4.16961638E9	4.16961638E9	4.16961638E9	1.0	1.0	1.0	1.0	1.0	1.0	1.0	1.0	1.0	1.0	1.0	1.0	1.0	1.0	1.0	1.0	1.0	0.0	365.13135	-1		-1		-1		-1		-1		-1		-1		-1		-1		-1	
171	0	1	65	14.0	14.0	1.0	6.1649535E17	6.1251666E9	6.1251666E9	6.1251666E9	6.1251666E9	1.0	1.0	1.0	1.0	1.0	1.0	1.0	1.0	1.0	1.0	1.0	1.0	1.0	1.0	1.0	1.0	1.0	0.0	365.13135	-1		-1		-1		-1		-1		-1		-1		-1		-1		-1	
172	0	1	66	14.2	14.2	1.0	1.16086067E18	8.9978696E9	8.9978696E9	8.9978696E9	8.9978696E9	1.0	1.0	1.0	1.0	1.0	1.0	1.0	1.0	1.0	1.0	1.0	1.0	1.0	1.0	1.0	1.0	1.0	0.0	365.13135	-1		-1		-1		-1		-1		-1		-1		-1		-1		-1	
173	0	1	67	14.4	14.4	1.0	2.18590072E18	1.32178708E10	1.32178708E10	1.32178708E10	1.32178708E10	1.0	1.0	1.0	1.0	1.0	1.0	1.0	1.0	1.0	1.0	1.0	1.0	1.0	1.0	1.0	1.0	1.0	0.0	365.13135	-1		-1		-1		-1		-1		-1		-1		-1		-1		-1	
174	0	1	68	14.6	14.6	1.0	4.11605119E18	1.94170511E10	1.94170511E10	1.94170511E10	1.94170511E10	1.0	1.0	1.0	1.0	1.0	1.0	1.0	1.0	1.0	1.0	1.0	1.0	1.0	1.0	1.0	1.0	1.0	0.0	365.13135	-1		-1		-1		-1		-1		-1		-1		-1		-1		-1	
175	0	1	69	14.8	14.8	1.0	7.750524E18	2.8523649E10	2.8523649E10	2.8523649E10	2.8523649E10	1.0	1.0	1.0	1.0	1.0	1.0	1.0	1.0	1.0	1.0	1.0	1.0	1.0	1.0	1.0	1.0	1.0	0.0	365.13135	-1		-1		-1		-1		-1		-1		-1		-1		-1		-1	
176	0	1	70	15.0	15.0	1.0	1.4594237E19	4.190124E10	4.190124E10	4.190124E10	4.190124E10	1.0	1.0	1.0	1.0	1.0	1.0	1.0	1.0	1.0	1.0	1.0	1.0	1.0	1.0	1.0	1.0	1.0	0.0	365.13135	-1		-1		-1		-1		-1		-1		-1		-1		-1		-1	
177	0	1	71	15.2	15.2	1.0	2.748095E19	6.1552923E10	6.1552923E10	6.1552923E10	6.1552923E10	1.0	1.0	1.0	1.0	1.0	1.0	1.0	1.0	1.0	1.0	1.0	1.0	1.0	1.0	1.0	1.0	1.0	0.0	365.13135	-1		-1		-1		-1		-1		-1		-1		-1		-1		-1	
178	0	1	72	15.4	15.4	1.0	5.174663E19	9.042124E10	9.042124E10	9.042124E10	9.042124E10	1.0	1.0	1.0	1.0	1.0	1.0	1.0	1.0	1.0	1.0	1.0	1.0	1.0	1.0	1.0	1.0	1.0	0.0	365.13135	-1		-1		-1		-1		-1		-1		-1		-1		-1		-1	
179	0	1	73	15.6	15.6	1.0	9.74389E19	1.32828807E11	1.32828807E11	1.32828807E11	1.32828807E11	1.0	1.0	1.0	1.0	1.0	1.0	1.0	1.0	1.0	1.0	1.0	1.0	1.0	1.0	1.0	1.0	1.0	0.0	365.13135	-1		-1		-1		-1		-1		-1		-1		-1		-1		-1	
180	0	1	74	15.8	15.8	1.0	1.8347744E20	1.9512551E11	1.9512551E11	1.9512551E11	1.9512551E11	1.0	1.0	1.0	1.0	1.0	1.0	1.0	1.0	1.0	1.0	1.0	1.0	1.0	1.0	1.0	1.0	1.0	0.0	365.13135	-1		-1		-1		-1		-1		-1		-1		-1		-1		-1	
181	0	1	75	16.0	16.0	1.0	3.45488E20	2.86639391E11	2.86639391E11	2.86639391E11	2.86639391E11	1.0	1.0	1.0	1.0	1.0	1.0	1.0	1.0	1.0	1.0	1.0	1.0	1.0	1.0	1.0	1.0	1.0	0.0	365.13135	-1		-1		-1		-1		-1		-1		-1		-1		-1		-1	
182	0	1	76	16.2	16.2	1.0	6.50554E20	4.21073256E11	4.21073256E11	4.21073256E11	4.21073256E11	1.0	1.0	1.0	1.0	1.0	1.0	1.0	1.0	1.0	1.0	1.0	1.0	1.0	1.0	1.0	1.0	1.0	0.0	365.13135	-1		-1		-1		-1		-1		-1		-1		-1		-1		-1	
183	0	1	77	16.4	16.4	1.0	1.224993E21	6.1855662E11	6.1855662E11	6.1855662E11	6.1855662E11	1.0	1.0	1.0	1.0	1.0	1.0	1.0	1.0	1.0	1.0	1.0	1.0	1.0	1.0	1.0	1.0	1.0	0.0	365.13135	-1		-1		-1		-1		-1		-1		-1		-1		-1		-1	
184	0	1	78	16.6	16.6	1.0	2.306662E21	9.0865965E11	9.0865965E11	9.0865965E11	9.0865965E11	1.0	1.0	1.0	1.0	1.0	1.0	1.0	1.0	1.0	1.0	1.0	1.0	1.0	1.0	1.0	1.0	1.0	0.0	365.13135	-1		-1		-1		-1		-1		-1		-1		-1		-1		-1	
185	0	1	79	16.8	16.8	1.0	4.3434446E21	1.334821E12	1.334821E12	1.334821E12	1.334821E12	1.0	1.0	1.0	1.0	1.0	1.0	1.0	1.0	1.0	1.0	1.0	1.0	1.0	1.0	1.0	1.0	1.0	0.0	365.13135	-1		-1		-1		-1		-1		-1		-1		-1		-1		-1	
186	0	1	80	17.0	17.0	1.0	8.178706E21	1.96085206E12	1.96085206E12	1.96085206E12	1.96085206E12	1.0	1.0	1.0	1.0	1.0	1.0	1.0	1.0	1.0	1.0	1.0	1.0	1.0	1.0	1.0	1.0	1.0	0.0	365.13135	-1		-1		-1		-1		-1		-1		-1		-1		-1		-1	
187	0	1	81	17.2	17.2	1.0	1.5400504E22	2.88049175E12	2.88049175E12	2.88049175E12	2.88049175E12	1.0	1.0	1.0	1.0	1.0	1.0	1.0	1.0	1.0	1.0	1.0	1.0	1.0	1.0	1.0	1.0	1.0	0.0	365.13135	-1		-1		-1		-1		-1		-1		-1		-1		-1		-1	
188	0	1	82	17.4	17.4	1.0	2.8999149E22	4.2314422E12	4.2314422E12	4.2314422E12	4.2314422E12	1.0	1.0	1.0	1.0	1.0	1.0	1.0	1.0	1.0	1.0	1.0	1.0	1.0	1.0	1.0	1.0	1.0	0.0	365.13135	-1		-1		-1		-1		-1		-1		-1		-1		-1		-1	
189	0	1	83	17.6	17.6	1.0	5.46054E22	6.2159889E12	6.2159889E12	6.2159889E12	6.2159889E12	1.0	1.0	1.0	1.0	1.0	1.0	1.0	1.0	1.0	1.0	1.0	1.0	1.0	1.0	1.0	1.0	1.0	0.0	365.13135	-1		-1		-1		-1		-1		-1		-1		-1		-1		-1	
190	0	1	84	17.8	17.8	1.0	1.0282196E23	9.1312871E12	9.1312871E12	9.1312871E12	9.1312871E12	1.0	1.0	1.0	1.0	1.0	1.0	1.0	1.0	1.0	1.0	1.0	1.0	1.0	1.0	1.0	1.0	1.0	0.0	365.13135	-1		-1		-1		-1		-1		-1		-1		-1		-1		-1	
191	0	1	85	18.0	18.0	1.0	1.9361375E23	1.34138613E13	1.34138613E13	1.34138613E13	1.34138613E13	1.0	1.0	1.0	1.0	1.0	1.0	1.0	1.0	1.0	1.0	1.0	1.0	1.0	1.0	1.0	1.0	1.0	0.0	365.13135	-1		-1		-1		-1		-1		-1		-1		-1		-1		-1	
192	0	1	86	18.2	18.2	1.0	3.6457468E23	1.97049618E13	1.97049618E13	1.97049618E13	1.97049618E13	1.0	1.0	1.0	1.0	1.0	1.0	1.0	1.0	1.0	1.0	1.0	1.0	1.0	1.0	1.0	1.0	1.0	0.0	365.13135	-1		-1		-1		-1		-1		-1		-1		-1		-1		-1	
193	0	1	87	18.4	18.4	1.0	6.8649414E23	2.89465906E13	2.89465906E13	2.89465906E13	2.89465906E13	1.0	1.0	1.0	1.0	1.0	1.0	1.0	1.0	1.0	1.0	1.0	1.0	1.0	1.0	1.0	1.0	1.0	0.0	365.13135	-1		-1		-1		-1		-1		-1		-1		-1		-1		-1	
194	0	1	88	18.6	18.6	1.0	1.2926684E24	4.2522542E13	4.2522542E13	4.2522542E13	4.2522542E13	1.0	1.0	1.0	1.0	1.0	1.0	1.0	1.0	1.0	1.0	1.0	1.0	1.0	1.0	1.0	1.0	1.0	0.0	365.13135	-1		-1		-1		-1		-1		-1		-1		-1		-1		-1	
195	0	1	89	18.8	18.8	1.0	2.434095E24	6.246561E13	6.246561E13	6.246561E13	6.246561E13	1.0	1.0	1.0	1.0	1.0	1.0	1.0	1.0	1.0	1.0	1.0	1.0	1.0	1.0	1.0	1.0	1.0	0.0	365.13135	-1		-1		-1		-1		-1		-1		-1		-1		-1		-1	
196	0	1	90	19.0	19.0	1.0	4.5834005E24	9.1761985E13	9.1761985E13	9.1761985E13	9.1761985E13	1.0	1.0	1.0	1.0	1.0	1.0	1.0	1.0	1.0	1.0	1.0	1.0	1.0	1.0	1.0	1.0	1.0	0.0	365.13135	-1		-1		-1		-1		-1		-1		-1		-1		-1		-1	
197	0	1	91	19.2	19.2	1.0	8.6305427E24	1.34798354E14	1.34798354E14	1.34798354E14	1.34798354E14	1.0	1.0	1.0	1.0	1.0	1.0	1.0	1.0	1.0	1.0	1.0	1.0	1.0	1.0	1.0	1.0	1.0	0.0	365.13135	-1		-1		-1		-1		-1		-1		-1		-1		-1		-1	
198	0	1	92	19.4	19.4	1.0	1.6251313E25	1.98018779E14	1.98018779E14	1.98018779E14	1.98018779E14	1.0	1.0	1.0	1.0	1.0	1.0	1.0	1.0	1.0	1.0	1.0	1.0	1.0	1.0	1.0	1.0	1.0	0.0	365.13135	-1		-1		-1		-1		-1		-1		-1		-1		-1		-1	
199	0	1	93	19.6	19.6	1.0	3.060122E25	2.90889579E14	2.90889579E14	2.90889579E14	2.90889579E14	1.0	1.0	1.0	1.0	1.0	1.0	1.0	1.0	1.0	1.0	1.0	1.0	1.0	1.0	1.0	1.0	1.0	0.0	365.13135	-1		-1		-1		-1		-1		-1		-1		-1		-1		-1	
200	0	1	94	19.8	19.8	1.0	5.76221E25	4.27316799E14	4.27316799E14	4.27316799E14	4.27316799E14	1.0	1.0	1.0	1.0	1.0	1.0	1.0	1.0	1.0	1.0	1.0	1.0	1.0	1.0	1.0	1.0	1.0	0.0	365.13135	-1		-1		-1		-1		-1		-1		-1		-1		-1		-1	
201	0	1	95	20.0	20.0	1.0	1.0850241E26	6.277284E14	6.277284E14	6.277284E14	6.277284E14	1.0	1.0	1.0	1.0	1.0	1.0	1.0	1.0	1.0	1.0	1.0	1.0	1.0	1.0	1.0	1.0	1.0	0.0	365.13135	-1		-1		-1		-1		-1		-1		-1		-1		-1		-1	
202	0	1	96	20.2	20.2	1.0	2.0431005E26	9.2213304E14	9.2213304E14	9.2213304E14	9.2213304E14	1.0	1.0	1.0	1.0	1.0	1.0	1.0	1.0	1.0	1.0	1.0	1.0	1.0	1.0	1.0	1.0	1.0	0.0	365.13135	-1		-1		-1		-1		-1		-1		-1		-1		-1		-1	
203	0	1	97	20.4	20.4	1.0	3.847158E26	1.35461336E15	1.35461336E15	1.35461336E15	1.35461336E15	1.0	1.0	1.0	1.0	1.0	1.0	1.0	1.0	1.0	1.0	1.0	1.0	1.0	1.0	1.0	1.0	1.0	0.0	365.13135	-1		-1		-1		-1		-1		-1		-1		-1		-1		-1	
204	0	1	98	20.6	20.6	1.0	7.244199E26	1.98992707E15	1.98992707E15	1.98992707E15	1.98992707E15	1.0	1.0	1.0	1.0	1.0	1.0	1.0	1.0	1.0	1.0	1.0	1.0	1.0	1.0	1.0	1.0	1.0	0.0	365.13135	-1		-1		-1		-1		-1		-1		-1		-1		-1		-1	
205	0	1	99	20.8	20.8	1.0	1.3640826E27	2.92320279E15	2.92320279E15	2.92320279E15	2.92320279E15	1.0	1.0	1.0	1.0	1.0	1.0	1.0	1.0	1.0	1.0	1.0	1.0	1.0	1.0	1.0	1.0	1.0	0.0	365.13135	-1		-1		-1		-1		-1		-1		-1		-1		-1		-1	
206	0	1	100	21.0	21.0	1.0	2.5685677E27	4.29418508E15	4.29418508E15	4.29418508E15	4.29418508E15	1.0	1.0	1.0	1.0	1.0	1.0	1.0	1.0	1.0	1.0	1.0	1.0	1.0	1.0	1.0	1.0	1.0	0.0	365.13135	-1		-1		-1		-1		-1		-1		-1		-1		-1		-1	
